-0.031136992491490156 -0.09373584883291608 -0.006060967486570146 -0.04531120441198716 0.04632766586922504 -0.10098814308016424 -0.04954135563202139 0.11285155926355661 0.0817344250807418 -0.14921877619353618 -0.09437442884858405 0.04135761490155676 -0.038369771201596625 0.017052500519924796 -0.09819365492272247 -0.00016273865803695386 
-0.11124150636692853 0.0117458852045067 0.01724854546582666 0.044783741061958704 -0.10668855232341601 -0.026902005144414654 -0.17632236618076091 -0.02101200904417766 0.4227770798134243 -0.48685528639381115 0.07376424088497568 0.05603254060400076 -0.05608751216520336 -0.04578603725361674 -0.17818159840420478 0.029560334122109566 
-0.006476911492722004 -0.05930556369181639 -0.16309773760259527 0.15684154502434455 -0.12148195534753681 -0.04655192875606595 0.020807518296738325 0.050803603299936384 0.09460520398103833 -0.12805123166467913 0.04104464354583115 -0.04912518544208533 -0.15317578455705405 0.1476788264619402 -0.22760155459261888 0.05751012514038667 
