-0.07622850493756612 -0.06244862653205914 -0.025827135954891414 -0.014262044564110643 -0.027727599154555173 -0.12105049008055307 -0.13592694725186677 0.022341721305826567 0.008602962152200355 0.07181849146489316 0.058371788585982465 0.23182806317214855 -0.024542493922483644 -0.19044531313675161 0.11782543357441533 0.008001019378584218 
-0.004565348535150676 -0.0014069419827069344 -0.0014659016211290427 -0.001552160550303271 -0.0005703469646380878 0.00185371120085829 -0.01167134636551797 0.06582413184712133 0.04434513918653116 0.02271575075610288 0.012329104061366003 0.07708545439652592 0.02405558691415266 -0.06940715132325637 0.006090970333716528 0.003133772393048795 
-0.01878105540025575 -0.01483802867026695 -0.013537644534106191 -0.0026002112382649094 -0.03275117545945601 -0.026603461729610284 -0.02580719873295565 -0.03707185326341378 0.03699538971341604 0.02077905218383347 0.018618502690962713 0.0650386292798737 0.04958133392387615 0.030247178191725343 -0.047744186938306454 0.0042151405502594 
