-0.10821122890813162 -0.297614272857309 -0.0013399683817301167 0.378381044723783 0.10583253476309085 -0.18871378267437988 -0.06332013528662772 0.07859943844538986 0.0035258679742282695 -0.11812691384212481 0.0103489085667956 0.026155097567370333 -0.016901581972253332 0.05907861485566279 -0.2718815853442429 -0.11947350677598223 
0.41078267095831666 -0.36379459787717283 -0.30112258592190155 0.002778068436974479 -0.10716526877152344 -0.2687851255652487 0.0318080779652532 0.034749583013161 0.13736142293750753 -0.2382801461119417 0.10935164171790568 -0.1288619225140586 -0.11258051431775229 0.1567077726246815 -0.2978551038899653 -0.4178245916162453 
-0.10253387955607196 -0.15419759393089016 -0.0396060170070589 -0.006774763114749671 -0.12439507522354476 -7.514169298383777e-05 -0.0020192535540219936 0.10186272779194461 0.17110345272624272 -0.161119075477564 -0.10226888695317715 0.2175353370326194 -0.40051028650712794 0.21079570063298725 0.021060106004906487 -0.38492547953471146 
0.04069151432587387 -0.06382493956679197 -0.1130308597007893 -0.06014107885716996 0.013322341963703827 -0.05682669884760805 -0.17080760390985378 0.07274010592372848 -0.022700051894563256 -0.06462361939958083 -0.01477748248037547 -0.033421512507916695 -0.06017221701092024 0.09349891330834037 0.07465933559777671 -0.1398429417049023 
-0.2767796274729114 -0.026921701735094228 0.14583388434902012 0.046704942239403024 -0.02455430869928943 0.04587768692550864 -0.042937682133383115 0.10821255375172889 0.03319680295215477 -0.18669872499428353 0.0039600241091362065 0.21004993751865308 -0.14116371370896053 -0.05296367000155211 0.010061449049807436 -0.03889742152319009 
0.019213045278900165 -0.12443436137189445 0.07178368800982166 -0.04669787873832809 -0.07791601295519829 -0.032084228256344494 -0.1878546906899507 0.1442487774699437 0.11577684462234616 -0.14274216178198906 -0.12549421079737932 0.031387859077521174 -0.049772984627578065 0.015980221431972197 -0.06286192741906582 -0.06353687970856292 
-0.1596521943357032 0.016322760382544876 -0.12782008677487622 0.13776836670466885 -0.13546266964269338 -0.04508473545446412 -0.23839179052284298 0.09159366974253746 0.05264172129174316 -0.11393930269988672 -0.18780579620300353 0.2007688569811532 -0.06741599758341765 -0.0227798200421212 -0.15477517077241387 -0.07215518898383522 
