-0.2472430801991674 -0.050696628487522766 0.05516012181225838 -0.13586005145084412 -0.0241958306244463 0.1636228341960475 -0.0006657922511736913 0.03856101020987346 0.004438285246077811 0.09849446324095368 -0.19257675072613623 0.14985614491005705 -0.41788958340074345 0.31484960211619395 -0.46415720689977036 0.17787123884772882
-0.014303596648063355 -0.053949434868346025 0.04259700821445911 -0.0333556185408419 0.021325061232895237 0.019797667841729094 0.001975285437213259 0.021312121217754054 -0.00580160178326139 -0.051410895427487446 0.06951387839798784 -0.0013334764502950236 -0.0454093002534961 0.03524043078611783 -0.05042251192629976 -0.08137837351928567 
-0.06698897211140054 -0.06768867307140702 -0.07570674950043665 -0.05980956756008149 -0.08441827373215705 0.08600070860338693 -0.25327274805025857 -0.10822624112300794 0.2571144878582272 -0.06558064662182428 -0.1088366390653519 -0.049107397432662125 -0.24362260555357285 0.2737942869860701 -0.03041426615976306 -0.1575096412903214 
-0.05023482884622599 0.24112737112573956 -0.3693437926518994 0.12931019425135037 0.23126369399104085 -0.3004665323488229 -0.27302042197935705 -0.06269591494703519 0.16063228274773422 0.0005963422285581998 -0.16212602602143988 0.15645947066592925 -0.749565675734317 0.5813943885190511 -0.05425331790651455 0.10397443843912413 
0.008603505738692369 0.05243245925196899 -0.054705843777994645 -0.15345252979231475 0.13027772835413226 -0.024843956362603004 -0.04020386315870378 0.07450904819582727 0.034846547492496605 -0.0805158744447887 -0.04886929808413809 -0.10087868395612398 0.07848042581516212 0.07328013361944552 0.07302011559452914 -0.08315411171783005 
-0.18370464395975894 -0.016239481026725677 -0.035610788292601114 -0.1728464060196071 0.11006930322273689 -0.09402047440941352 -0.09619631505380255 -0.06416443750912038 0.3618493239736722 -0.4849079962163465 0.0365685345541209 0.36195318821017963 -0.570106736494715 0.3606539749002948 -0.05989700736522252 -0.3027730295421094
